{"weights": [[[[-0.08239427084897297, -0.052126729026343674, 0.12345511406061088, 0.07758478363085752], [-0.004189091660287957, 0.001983097241301149, 0.02008718654871098, -0.048017635519755346], [0.013695457397374067, -0.18552803096279136, -0.10475359760274094, -0.07985987321643478], [-0.08466920009052173, -0.010396520502591149, -0.12363266248724705, -0.013338300696271767], [-0.057005492537410635, -0.1381224123642486, 0.0397557741523134, 0.014504479127739575]], [[0.07471201896518018, 0.008278749374547922, -0.08932794471805432, -0.044368708846541705], [-0.0007380937734449398, -0.08590038782405462, 0.13860184686005256, 0.018223789629512474], [-0.015020363232416156, 0.07373834392315412, 0.07363838680344018, -0.12617457501457466], [0.08892793743510932, -0.0653652151396382, -0.1702785711260456, 0.08496262420435978]], [[0.04539377328171014, 0.0803004457382035, 0.13890411915844042], [0.11975450696433831, 0.07721742203871965, -0.2383042762010243], [-0.04193452330283555, 0.008702628838863878, 0.054872305267903834], [0.08452118735295294, -0.17302060183324297, -0.13208690023036732]]]], "biases": [[[0.0, 0.0, 0.0, 0.0]], [[0.0, 0.0, 0.0, 0.0]], [[0.0, 0.0, 0.0]]]}